0.619911960242571
-0.34792669697644
0.314588893441086
-0.776571585490719
0.0517230238672058
-0.0829769526688743
0.405485340228931
0.112046800279112
0.216643009221688
0.87135765158972
0.261509624873768
0.450830474114292
0.144835851051925
0.351430865781669
-0.0823893732549043
0.060224236342648
-0.361455999388274
-1.00865718726926
-0.125822765911893
0.0454868489386288
-0.173499937819932
0.351188177353036
-0.226989851370164
-0.483880373415277
0.234820781941814
-0.0867612322021323
0.102486339297852
0.114037533030029
0.275783206698568
-0.392828009822699
0.107167835490706
0.473506359880954
0.197558947484983
-0.215483311266583
0.651466326444188
0.547936909242774
-0.574517828004598
0.266931019932014
0.454935410105736
-0.123733608507386
-0.540656878131439
0.360932970899551
0.370057857167538
0.080781241424084
-0.108473215871677
-0.0488995678449154
0.419232503796049
0.429135484663887
-0.234338509627376
-0.105345559054564
0.392411304480125
0.00816468331993461
-0.166643115457119
0.419084327781195
0.628717220711182
0.263371907985666
0.399262175220969
0.423886853061619
0.327903390943854
0.108175879049729
0.317507905967757
-0.29840786018384
-0.479326699166641
-0.914258194440409
-0.134586262810692
-0.527258957128331
-0.706073536721511
-0.48219857451733
-0.083292096596629
-0.171597383567055
0.659554812157839
-0.204584909390983
-0.442234736799487
-0.445615901621362
0.275945359978341
-0.155424446832007
0.507799428550646
-0.819809048989521
0.319674069232705
0.150218559626674
0.635369225356613
-0.228750115397874
0.0260627549371991
-0.11228425498195
0.402300975825685
0.111877048840084
-0.68607398236127
0.460869787909639
0.120018892246647
-0.212698911952167
-0.940731661410782
0.239978093170704
-0.500288930738049
0.364400570771578
1.19317980592711
0.320938224376467
-0.0373903851810041
0.259788481507821
-0.380687304820493
-0.03132185403509
0.38685153844184
-0.437414834119602
0.338992753022699
0.0428554455541633
-0.374047003490321
0.501062551888948
-0.299956062530777
-0.100199514420934
0.22046103732647
0.05714341056416
0.180153748463773
-0.333185221149129
0.145931280946198
0.0452867158335876
-0.0403214302726611
-0.952317071186724
0.0634787420459881
-0.27510040235671
0.467055124824265
-0.139692941135559
-0.271103794670209
0.390736706802339
-0.206750322102073
0.265209537086965
-0.16666883600989
-0.169179768452831
-0.0326957894098106
-0.163031790710013
0.139553167559205
-0.443202830129103
0.0457600064900643
0.283332268592123
0.321165364533825
-0.717460957527045
0.155042848538772
-0.573790806200155
0.484143900706187
-0.101633575359523
-0.555554843754055
0.387843862281934
0.395146546311769
0.602416308562714
0.94101949925557
-0.729438346116424
-0.0865612192540035
-0.702493555017511
0.159691034394768
0.339132759124878
-0.0136274317315425
-0.494372271623811
0.204105111292538
0.753304896392984
0.113717573539501
-0.477545228410754
1.03322501568222
-0.267339159966303
0.497725618671416
-0.184806816596782
0.503481849262734
0.175496737153153
-0.223652620897088
0.434775585010419
0.170510554356567
0.122111553452884
-0.16279546400361
0.283430655848893
0.21736773424054
0.264966795879359
-0.229401233931185
-0.157424806387978
-0.711811005405798
-0.0588241637589548
-0.077361281197835
-0.617514684948474
-0.0626304575853635
0.562542251457937
0.379522527813372
0.0691118512963684
-0.0266012448199903
0.188438933978425
0.0500321177497826
-0.522406366013947
0.181969719649849
0.137822937931385
-0.291164850033666
-0.0763067463990934
-0.185821366287813
-0.0665007660552335
-0.126397523932503
-0.201057727304866
-0.360141928667309
-0.0249788723089333
-0.0793350068154574
-0.264218959796044
-0.652084467673823
0.592566419646527
0.279916593621189
0.0928957344358573
-0.524462761527273
0.0728237857996936
0.194314031028826
0.172284204234217
0.0207461173905287
-0.31382983483875
-0.0408489235897902
0.0312575615557785
0.492687170032906
0.574998204866528
-0.0477839232576405
0.49929592881088
0.415546515765839
-0.629879163555826
-0.356136539316378
-0.0857211062936479
0.255754446566728
0.122544250326942
-0.174262572618405
-0.717119431541535
0.00802177717758529
0.00501940256446581
-0.444875276296217
-0.174637627235764
0.343277518949423
-0.704385215805424
0.350935605945846
0.354319512664424
0.457514322742055
0.136537905253616
-0.498839634959103
0.401592649853625
0.199101717189788
0.472285202564422
0.667078286172393
-0.0521946085919767
-0.272816136302246
-0.456063739492848
-0.334492699710513
0.366624743797809
-0.378340328361947
0.259022784889401
-0.352916909435562
-0.0705184790099783
0.09930171833839
0.191796818950559
-0.00744748138255182
0.285794803698849
0.127445671524701
-0.781787725888603
0.159889593674212
-0.0223310466854248
-0.222172400889691
0.439437293906986
-0.466396479918683
-0.100091541709069
-0.12717943010586
-0.294274966545191
0.661066715396562
-0.223402068330854
0.28036496258794
0.162172513905836
0.208344708610457
-0.112185476840435
-0.112701124900675
-0.761899903713299
-0.201930459052372
-0.489739344392252
-0.722525946531648
0.0976648539803283
0.641959284694584
0.298435128867548
-0.742621124648071
0.331333896287189
-0.105712241880198
-0.429170721530655
0.251376612755609
-0.0407951887199853
0.666892444906879
-0.681486179825504
0.25870881960265
0.092650651197078
-0.0516473758274466
0.466393735152572
0.0663403800455522
0.524903915939521
0.0449593466181892
-0.54104324071445
0.207878313299524
-0.0311802713019734
-0.173317735574766
0.40585890679771
-0.0884234896967047
0.362879081656116
0.102201088223522
0.116966193372983
0.305061455807942
0.0842099472229759
-0.0637226879002023
0.891585288472472
-0.100156937851062
0.0134060662512819
-0.354179935184873
0.146457671227045
-0.37266427845068
0.279774453117533
-0.319285801407967
0.0729649186750594
0.0574605842776746
-0.672158924589136
0.327531718504003
-0.31446588801718
-0.388257705296265
-0.00267344857238419
0.242222215861601
-0.84804288259823
0.0379913802059355
-0.260486610146791
-0.189201687615606
0.197396594279852
-0.149425600232395
-0.138213372695731
0.179302855460602
-0.261900898005383
0.41364149578035
-0.884415963196252
-0.0558337166522312
0.148837957721668
0.222822272468084
0.0340686306779609
0.171504533834086
-0.177227635990623
0.294734203396129
-0.259489335848841
0.738743930384838
0.717802352537619
-0.581054108906247
0.0635795043990414
0.233267644462738
-0.331486532099796
0.045325102080195
0.359000493380317
0.374720662905841
-0.287062448175657
0.0724546987777028
0.174037347750229
0.793163831230652
0.192668463454332
0.0391480369507363
-0.118878244427384
0.193906439509181
-0.553543640124393
0.183633902360492
0.0854734481101833
0.618137120704204
0.702284568406888
0.131853704643736
0.339333684932238
-0.687531277910017
0.599545305894965
0.0808282490099269
-0.587068889777715
-0.151258540507508
0.0901325740804019
0.138237301180165
0.163417421871578
0.137217620862491
-0.152404691445925
-0.839473202552458
0.271022338182109
0.00760717435712582
0.457252068892684
0.172066508630706
-0.849415328702962
-0.108108855220999
-0.152099038634496
0.11820528887269
0.913947329446427
-0.459676473220186
0.22195413026423
-0.342421267390892
-0.0575587884443488
-0.0195716810598654
-0.383812215261618
0.464090020503274
-0.0942091010307312
0.0194148065015034
-0.0906801106393966
-0.836751591471624
0.582772702495909
-0.616399698671718
-0.548017076508844
-0.142953094130512
0.788904836011039
-0.5435883675746
-0.0131500775879712
-0.609446283780323
-0.273142960723626
-0.621146233560345
0.289818234017252
0.0355190304456291
0.751468374790185
0.203435069491924
0.0122206023494851
0.0600519698192153
0.52658425054504
0.645954763086933
-0.435592562720761
0.210056767568656
-0.268529620343193
0.585943599589966
0.406673824917459
-0.265024570614468
-0.5252347200892
0.370416564324088
-0.494506864402898
-0.0141290510274743
0.565123146997825
-0.927106623139721
-0.207515267762604
-0.377675040737508
0.394878267915272
0.324499582451088
-0.054498057904194
0.0791679202717137
-0.390599379234715
0.0270427474949256
1.14292387109135
0.0735108234766002
-0.711531233112027
0.0592315353601544
-0.383139510806193
-0.353418023608
0.237931550389252
0.0941971617768835
0.0492375316127572
-0.073458983749423
0.408368291071624
-0.0850009173224308
0.0737351543696513
-0.20856417992991
0.225691526639773
0.528753963925906
-0.217231401832235
0.171260268511744
-0.270500195151242
-0.861244273230053
-0.18861747225586
0.0105480332463351
-0.306736169393454
0.216984935180815
0.0996311501115332
-0.244771516138913
0.111441476274985
0.58079910732584
-0.00913319540226553
-0.152069802158767
0.339823322336154
0.00409528197976019
0.11550041486937
-0.216231319966768
-0.0905857463495638
0.067619508514099
0.127241890589567
0.3500555577985
0.259898131635801
-0.0510341766053765
-0.0914312793055821
-0.473903538234413
-0.298714383004622
-0.998773652194323
0.180999425141835
-0.0717215131474029
-0.187224421463681
0.745720280953761
0.214874683170659
-0.350666193614175
0.505845575703044
-0.417044415896589
-0.435502815739468
-0.314850378781091
-0.0730298358974417
-0.361575071586375
0.0841656718367672
0.500878911914264
0.592196235639797
0.200538246733404
-0.0498959123933041
0.622631072370286
-0.130624818257603
0.589603704332447
0.623525759422751
-0.330454244386097
-0.260120196945108
-0.0542805018628493
-0.347787812612169
0.462935276023285
-0.656566922841066
0.406400313019162
0.079908851842152
0.400801378621961
0.156733105616603
